<?xml version="1.0"?>
<opencv_storage>
<cascade>
  <stageType>BOOST</stageType>
  <featureType>HAAR</featureType>
  <height>24</height>
  <width>24</width>
  <stageParams>
    <boostType>GAB</boostType>
    <minHitRate>9.9500000476837158e-01</minHitRate>
    <maxFalseAlarm>5.0000000000000000e-01</maxFalseAlarm>
    <weightTrimRate>9.4999998807907104e-01</weightTrimRate>
    <maxDepth>1</maxDepth>
    <maxWeakCount>100</maxWeakCount></stageParams>
  <featureParams>
    <maxCatCount>0</maxCatCount>
    <featSize>1</featSize>
    <mode>BASIC</mode></featureParams>
  <stageNum>8</stageNum>
  <stages>
    <!-- stage 0 -->
    <_>
      <maxWeakCount>1</maxWeakCount>
      <stageThreshold>1.</stageThreshold>
      <weakClassifiers>
        <_>
          <internalNodes>
            0 -1 0 -2.2290399298071861e-02</internalNodes>
          <leafValues>
            1. -1.</leafValues></_></weakClassifiers></_>
    <!-- stage 1 -->
    <_>
      <maxWeakCount>3</maxWeakCount>
      <stageThreshold>-1.0130422115325928e+00</stageThreshold>
      <weakClassifiers>
        <_>
          <internalNodes>
            0 -1 11 4.0734473615884781e-02</internalNodes>
          <leafValues>
            -9.4047617912292480e-01 9.6261680126190186e-01</leafValues></_>
        <_>
          <internalNodes>
            0 -1 9 2.0321384072303772e-02</internalNodes>
          <leafValues>
            -8.8094788789749146e-01 9.1550278663635254e-01</leafValues></_>
        <_>
          <internalNodes>
            0 -1 17 1.1328802793286741e-04</internalNodes>
          <leafValues>
            -8.6528837680816650e-01 8.0838185548782349e-01</leafValues></_></weakClassifiers></_>
    <!-- stage 2 -->
    <_>
      <maxWeakCount>3</maxWeakCount>
      <stageThreshold>-1.0598325729370117e+00</stageThreshold>
      <weakClassifiers>
        <_>
          <internalNodes>
            0 -1 1 6.0988731682300568e-02</internalNodes>
          <leafValues>
            -9.6296298503875732e-01 8.9380532503128052e-01</leafValues></_>
        <_>
          <internalNodes>
            0 -1 21 -1.0577389039099216e-02</internalNodes>
          <leafValues>
            8.5144925117492676e-01 -8.9282321929931641e-01</leafValues></_>
        <_>
          <internalNodes>
            0 -1 2 -4.0247298777103424e-02</internalNodes>
          <leafValues>
            7.9595363140106201e-01 -8.9673078060150146e-01</leafValues></_></weakClassifiers></_>
    <!-- stage 3 -->
    <_>
      <maxWeakCount>3</maxWeakCount>
      <stageThreshold>-9.9279415607452393e-01</stageThreshold>
      <weakClassifiers>
        <_>
          <internalNodes>
            0 -1 13 4.8614241182804108e-02</internalNodes>
          <leafValues>
            -8.5714286565780640e-01 9.4999998807907104e-01</leafValues></_>
        <_>
          <internalNodes>
            0 -1 20 -9.0696092229336500e-05</internalNodes>
          <leafValues>
            7.8038442134857178e-01 -9.0106594562530518e-01</leafValues></_>
        <_>
          <internalNodes>
            0 -1 4 -5.1284495741128922e-02</internalNodes>
          <leafValues>
            7.6541459560394287e-01 -8.7221223115921021e-01</leafValues></_></weakClassifiers></_>
    <!-- stage 4 -->
    <_>
      <maxWeakCount>3</maxWeakCount>
      <stageThreshold>-1.1182546615600586e+00</stageThreshold>
      <weakClassifiers>
        <_>
          <internalNodes>
            0 -1 18 -6.1663247644901276e-02</internalNodes>
          <leafValues>
            8.2532751560211182e-01 -9.3146419525146484e-01</leafValues></_>
        <_>
          <internalNodes>
            0 -1 19 -9.6948613645508885e-05</internalNodes>
          <leafValues>
            6.9529408216476440e-01 -8.9554572105407715e-01</leafValues></_>
        <_>
          <internalNodes>
            0 -1 3 -1.0257543181069195e-04</internalNodes>
          <leafValues>
            7.0875525474548340e-01 -8.2692223787307739e-01</leafValues></_></weakClassifiers></_>
    <!-- stage 5 -->
    <_>
      <maxWeakCount>3</maxWeakCount>
      <stageThreshold>-1.0412395000457764e+00</stageThreshold>
      <weakClassifiers>
        <_>
          <internalNodes>
            0 -1 5 -2.5245435535907745e-02</internalNodes>
          <leafValues>
            8.5585588216781616e-01 -9.1463416814804077e-01</leafValues></_>
        <_>
          <internalNodes>
            0 -1 8 7.1952193975448608e-02</internalNodes>
          <leafValues>
            -8.0796021223068237e-01 7.6822280883789063e-01</leafValues></_>
        <_>
          <internalNodes>
            0 -1 16 9.0480098151601851e-05</internalNodes>
          <leafValues>
            -8.4977483749389648e-01 6.8135488033294678e-01</leafValues></_></weakClassifiers></_>
    <!-- stage 6 -->
    <_>
      <maxWeakCount>3</maxWeakCount>
      <stageThreshold>-8.2537335157394409e-01</stageThreshold>
      <weakClassifiers>
        <_>
          <internalNodes>
            0 -1 12 -4.1904442012310028e-02</internalNodes>
          <leafValues>
            9.7989952564239502e-01 -8.6894589662551880e-01</leafValues></_>
        <_>
          <internalNodes>
            0 -1 6 7.9435799270868301e-03</internalNodes>
          <leafValues>
            -7.5047063827514648e-01 8.4487527608871460e-01</leafValues></_>
        <_>
          <internalNodes>
            0 -1 10 4.3811161071062088e-02</internalNodes>
          <leafValues>
            -7.3950994014739990e-01 7.9404318332672119e-01</leafValues></_></weakClassifiers></_>
    <!-- stage 7 -->
    <_>
      <maxWeakCount>3</maxWeakCount>
      <stageThreshold>-9.0697592496871948e-01</stageThreshold>
      <weakClassifiers>
        <_>
          <internalNodes>
            0 -1 14 7.9911530017852783e-02</internalNodes>
          <leafValues>
            -8.0110496282577515e-01 9.5744681358337402e-01</leafValues></_>
        <_>
          <internalNodes>
            0 -1 7 -1.0213709902018309e-04</internalNodes>
          <leafValues>
            7.8635847568511963e-01 -8.4244924783706665e-01</leafValues></_>
        <_>
          <internalNodes>
            0 -1 15 -8.9150169515050948e-05</internalNodes>
          <leafValues>
            7.3657828569412231e-01 -8.6188966035842896e-01</leafValues></_></weakClassifiers></_></stages>
  <features>
    <_>
      <rects>
        <_>
          0 6 10 18 -1.</_>
        <_>
          0 6 5 9 2.</_>
        <_>
          5 15 5 9 2.</_></rects>
      <tilted>0</tilted></_>
    <_>
      <rects>
        <_>
          1 15 21 4 -1.</_>
        <_>
          8 15 7 4 3.</_></rects>
      <tilted>0</tilted></_>
    <_>
      <rects>
        <_>
          5 12 6 10 -1.</_>
        <_>
          5 17 6 5 2.</_></rects>
      <tilted>0</tilted></_>
    <_>
      <rects>
        <_>
          6 11 1 2 -1.</_>
        <_>
          6 12 1 1 2.</_></rects>
      <tilted>0</tilted></_>
    <_>
      <rects>
        <_>
          6 15 13 6 -1.</_>
        <_>
          6 18 13 3 2.</_></rects>
      <tilted>0</tilted></_>
    <_>
      <rects>
        <_>
          7 0 6 18 -1.</_>
        <_>
          7 0 3 9 2.</_>
        <_>
          10 9 3 9 2.</_></rects>
      <tilted>0</tilted></_>
    <_>
      <rects>
        <_>
          7 1 1 12 -1.</_>
        <_>
          7 7 1 6 2.</_></rects>
      <tilted>0</tilted></_>
    <_>
      <rects>
        <_>
          7 10 1 2 -1.</_>
        <_>
          7 11 1 1 2.</_></rects>
      <tilted>0</tilted></_>
    <_>
      <rects>
        <_>
          8 1 6 12 -1.</_>
        <_>
          8 5 6 4 3.</_></rects>
      <tilted>0</tilted></_>
    <_>
      <rects>
        <_>
          9 2 6 6 -1.</_>
        <_>
          9 5 6 3 2.</_></rects>
      <tilted>0</tilted></_>
    <_>
      <rects>
        <_>
          10 4 10 10 -1.</_>
        <_>
          10 4 5 5 2.</_>
        <_>
          15 9 5 5 2.</_></rects>
      <tilted>0</tilted></_>
    <_>
      <rects>
        <_>
          10 5 10 8 -1.</_>
        <_>
          10 5 5 4 2.</_>
        <_>
          15 9 5 4 2.</_></rects>
      <tilted>0</tilted></_>
    <_>
      <rects>
        <_>
          11 9 6 12 -1.</_>
        <_>
          11 9 3 6 2.</_>
        <_>
          14 15 3 6 2.</_></rects>
      <tilted>0</tilted></_>
    <_>
      <rects>
        <_>
          11 11 3 12 -1.</_>
        <_>
          11 15 3 4 3.</_></rects>
      <tilted>0</tilted></_>
    <_>
      <rects>
        <_>
          12 8 9 7 -1.</_>
        <_>
          15 8 3 7 3.</_></rects>
      <tilted>0</tilted></_>
    <_>
      <rects>
        <_>
          12 15 1 2 -1.</_>
        <_>
          12 16 1 1 2.</_></rects>
      <tilted>0</tilted></_>
    <_>
      <rects>
        <_>
          13 7 2 1 -1.</_>
        <_>
          14 7 1 1 2.</_></rects>
      <tilted>0</tilted></_>
    <_>
      <rects>
        <_>
          13 11 2 1 -1.</_>
        <_>
          14 11 1 1 2.</_></rects>
      <tilted>0</tilted></_>
    <_>
      <rects>
        <_>
          14 6 10 9 -1.</_>
        <_>
          19 6 5 9 2.</_></rects>
      <tilted>0</tilted></_>
    <_>
      <rects>
        <_>
          15 8 1 2 -1.</_>
        <_>
          15 9 1 1 2.</_></rects>
      <tilted>0</tilted></_>
    <_>
      <rects>
        <_>
          15 9 1 2 -1.</_>
        <_>
          15 10 1 1 2.</_></rects>
      <tilted>0</tilted></_>
    <_>
      <rects>
        <_>
          16 5 4 14 -1.</_>
        <_>
          18 5 2 14 2.</_></rects>
      <tilted>0</tilted></_></features></cascade>
</opencv_storage>
